[{"feature": [5, 4, 6, 4, -2, -2, 5, -2, -2, -2, -2], "threshold": [0.44919253885746, -0.3658207505941391, 0.3600867688655853, -0.3690771609544754, -2.0, -2.0, -1.1352747678756714, -2.0, -2.0, -2.0, -2.0], "children_left": [1, 2, 3, 4, -1, -1, 7, -1, -1, -1, -1], "children_right": [10, 9, 6, 5, -1, -1, 8, -1, -1, -1, -1], "values": [[[0.8112963495257258, 0.1887036504742742]], [[0.7226154008661667, 0.27738459913383334]], [[0.4989505819500095, 0.5010494180499905]], [[0.4940405244338498, 0.5059594755661502]], [[1.0, 0.0]], [[0.0, 1.0]], [[0.6183574879227053, 0.38164251207729466]], [[1.0, 0.0]], [[0.0, 1.0]], [[1.0, 0.0]], [[1.0, 0.0]]]}, {"feature": [7, 10, -2, 4, -2, -2, -2], "threshold": [-0.5970804393291473, -0.3149726390838623, -2.0, -0.3658207505941391, -2.0, -2.0, -2.0], "children_left": [1, 2, -1, 4, -1, -1, -1], "children_right": [6, 3, -1, 5, -1, -1, -1], "values": [[[0.8089249784420811, 0.19107502155791894]], [[0.6429434671679871, 0.3570565328320129]], [[1.0, 0.0]], [[0.44197271773347324, 0.5580272822665268]], [[0.0, 1.0]], [[1.0, 0.0]], [[1.0, 0.0]]]}, {"feature": [10, 4, -2, 4, -2, -2, 8, 7, -2, -2, -2], "threshold": [-0.3140648901462555, -0.3690771609544754, -2.0, -0.3658207505941391, -2.0, -2.0, -0.5980315208435059, -0.5993682146072388, -2.0, -2.0, -2.0], "children_left": [1, 2, -1, 4, -1, -1, 7, 8, -1, -1, -1], "children_right": [6, 3, -1, 5, -1, -1, 10, 9, -1, -1, -1], "values": [[[0.8067691865478586, 0.1932308134521414]], [[0.5447154471544715, 0.45528455284552843]], [[1.0, 0.0]], [[0.18545454545454546, 0.8145454545454546]], [[0.0, 1.0]], [[1.0, 0.0]], [[0.9998751872191712, 0.00012481278082875687]], [[0.9995095635115253, 0.0004904364884747426]], [[1.0, 0.0]], [[0.0, 1.0]], [[1.0, 0.0]]]}, {"feature": [8, 1, 6, 5, -2, 5, 8, -2, 8, -2, 4, -2, -2, -2, -2, 7, -2, 0, -2, 1, 9, -2, 10, -2, -2, 10, -2, -2, -2], "threshold": [-0.5970803201198578, 0.6357617676258087, 0.44021622836589813, -1.1516463160514832, -2.0, 0.5096095204353333, -0.6260093450546265, -2.0, -0.6256947815418243, -2.0, -0.3658207505941391, -2.0, -2.0, -2.0, -2.0, -0.8147332668304443, -2.0, 1.2353121638298035, -2.0, 0.8118652701377869, -0.014214925467967987, -2.0, -0.314966544508934, -2.0, -2.0, -0.3148484230041504, -2.0, -2.0, -2.0], "children_left": [1, 2, 3, 4, -1, 6, 7, -1, 9, -1, 11, -1, -1, -1, -1, 16, -1, 18, -1, 20, 21, -1, 23, -1, -1, 26, -1, -1, -1], "children_right": [28, 15, 14, 5, -1, 13, 8, -1, 10, -1, 12, -1, -1, -1, -1, 17, -1, 19, -1, 25, 22, -1, 24, -1, -1, 27, -1, -1, -1], "values": [[[0.8067691865478586, 0.1932308134521414]], [[0.6308347062053816, 0.3691652937946183]], [[0.49759229534510435, 0.5024077046548957]], [[0.49485575953197497, 0.505144240468025]], [[1.0, 0.0]], [[0.019193106149627888, 0.9808068938503721]], [[0.009885330170027679, 0.9901146698299723]], [[0.0, 1.0]], [[0.01918649270913277, 0.9808135072908672]], [[1.0, 0.0]], [[0.013127413127413128, 0.9868725868725868]], [[0.0, 1.0]], [[1.0, 0.0]], [[1.0, 0.0]], [[1.0, 0.0]], [[0.9195652173913044, 0.08043478260869565]], [[1.0, 0.0]], [[0.7684605757196495, 0.23153942428035043]], [[1.0, 0.0]], [[0.5118733509234829, 0.48812664907651715]], [[0.5192307692307693, 0.4807692307692308]], [[0.0, 1.0]], [[0.7132075471698113, 0.28679245283018867]], [[1.0, 0.0]], [[0.0, 1.0]], [[0.3333333333333333, 0.6666666666666666]], [[1.0, 0.0]], [[0.0, 1.0]], [[1.0, 0.0]]]}, {"feature": [7, 5, -2, 8, 1, 7, -2, -2, -2, 4, -2, -2, -2], "threshold": [-0.5972511470317841, -1.1516463160514832, -2.0, -0.6370752155780792, 0.81473308801651, -0.8050478994846344, -2.0, -2.0, -2.0, -0.3658207505941391, -2.0, -2.0, -2.0], "children_left": [1, 2, -1, 4, 5, 6, -1, -1, -1, 10, -1, -1, -1], "children_right": [12, 3, -1, 9, 8, 7, -1, -1, -1, 11, -1, -1, -1], "values": [[[0.8072003449267031, 0.1927996550732969]], [[0.6360059693393026, 0.36399403066069735]], [[1.0, 0.0]], [[0.43634453781512605, 0.563655462184874]], [[0.8942869995501574, 0.10571300044984255]], [[0.6482035928143712, 0.35179640718562877]], [[0.0, 1.0]], [[1.0, 0.0]], [[1.0, 0.0]], [[0.03508080409932992, 0.9649191959006701]], [[0.0, 1.0]], [[1.0, 0.0]], [[1.0, 0.0]]]}, {"feature": [10, 1, -2, 4, -2, 0, 4, -2, -2, -2, -2], "threshold": [-0.3140600919723511, 0.5969769954681396, -2.0, -0.3690771609544754, -2.0, 1.3376221656799316, -0.3658207505941391, -2.0, -2.0, -2.0, -2.0], "children_left": [1, 2, -1, 4, -1, 6, 7, -1, -1, -1, -1], "children_right": [10, 3, -1, 5, -1, 9, 8, -1, -1, -1, -1], "values": [[[0.8174762862891636, 0.18252371371083645]], [[0.5672175839154882, 0.43278241608451185]], [[1.0, 0.0]], [[0.5298037763791188, 0.47019622362088115]], [[1.0, 0.0]], [[0.05891070766950723, 0.9410892923304928]], [[0.011288439081354613, 0.9887115609186454]], [[0.0, 1.0]], [[1.0, 0.0]], [[1.0, 0.0]], [[1.0, 0.0]]]}, {"feature": [4, 0, 5, -2, -2, 9, -2, 10, -2, -2, -2], "threshold": [-0.3658207505941391, -0.047296587377786636, -1.1438499689102173, -2.0, -2.0, -0.0404859334230423, -2.0, -0.3149726390838623, -2.0, -2.0, -2.0], "children_left": [1, 2, 3, -1, -1, 6, -1, 8, -1, -1, -1], "children_right": [10, 5, 4, -1, -1, 7, -1, 9, -1, -1, -1], "values": [[[0.8067691865478586, 0.1932308134521414]], [[0.4982272812091808, 0.5017727187908192]], [[0.34782608695652173, 0.6521739130434783]], [[1.0, 0.0]], [[0.0, 1.0]], [[0.5042701863354038, 0.4957298136645963]], [[0.0, 1.0]], [[0.668898043254377, 0.3311019567456231]], [[1.0, 0.0]], [[0.0, 1.0]], [[1.0, 0.0]]]}, {"feature": [10, 5, 9, 1, -2, 1, -2, -2, 7, 0, 6, 6, -2, 5, -2, -2, 4, -2, 9, 9, -2, -2, -2, 1, 1, 5, -2, 10, -2, -2, -2, 5, 1, -2, -2, -2, -2, 4, -2, -2, 4, -2, -2], "threshold": [-0.31406383216381073, -0.8700381219387054, -0.04074528254568577, -0.12183952331542969, -2.0, 1.0049918293952942, -2.0, -2.0, -0.5972550511360168, 1.0502331852912903, -0.775421142578125, -1.271049439907074, -2.0, -1.1508427858352661, -2.0, -2.0, -0.36904098093509674, -2.0, 0.33502304553985596, 0.326041117310524, -2.0, -2.0, -2.0, 0.8118374049663544, 0.8118370473384857, -1.1358586549758911, -2.0, -0.31478431820869446, -2.0, -2.0, -2.0, -1.1356143355369568, 0.812155157327652, -2.0, -2.0, -2.0, -2.0, -0.3658207505941391, -2.0, -2.0, -0.3658207505941391, -2.0, -2.0], "children_left": [1, 2, 3, 4, -1, 6, -1, -1, 9, 10, 11, 12, -1, 14, -1, -1, 17, -1, 19, 20, -1, -1, -1, 24, 25, 26, -1, 28, -1, -1, -1, 32, 33, -1, -1, -1, -1, 38, -1, -1, 41, -1, -1], "children_right": [40, 37, 8, 5, -1, 7, -1, -1, 36, 23, 16, 13, -1, 15, -1, -1, 18, -1, 22, 21, -1, -1, -1, 31, 30, 27, -1, 29, -1, -1, -1, 35, 34, -1, -1, -1, -1, 39, -1, -1, 42, -1, -1], "values": [[[0.8116556481747629, 0.18834435182523715]], [[0.5542701599183396, 0.44572984008166044]], [[0.8630573248407644, 0.13694267515923567]], [[0.35106382978723405, 0.648936170212766]], [[1.0, 0.0]], [[0.1643835616438356, 0.8356164383561644]], [[0.0, 1.0]], [[1.0, 0.0]], [[0.8761567773543821, 0.12384322264561785]], [[0.8599569098184057, 0.14004309018159433]], [[0.8435794834485267, 0.15642051655147327]], [[0.9066666666666666, 0.09333333333333334]], [[1.0, 0.0]], [[0.8962264150943396, 0.10377358490566038]], [[1.0, 0.0]], [[0.0, 1.0]], [[0.8165280665280665, 0.18347193347193347]], [[1.0, 0.0]], [[0.013966480446927373, 0.9860335195530726]], [[0.1111111111111111, 0.8888888888888888]], [[0.0, 1.0]], [[1.0, 0.0]], [[0.0, 1.0]], [[0.95, 0.05]], [[0.9342465753424658, 0.06575342465753424]], [[0.9368131868131868, 0.06318681318681318]], [[1.0, 0.0]], [[0.25806451612903225, 0.7419354838709677]], [[0.0, 1.0]], [[1.0, 0.0]], [[0.0, 1.0]], [[0.9925925925925926, 0.007407407407407408]], [[0.9787234042553191, 0.02127659574468085]], [[1.0, 0.0]], [[0.0, 1.0]], [[1.0, 0.0]], [[1.0, 0.0]], [[0.002843601895734597, 0.9971563981042654]], [[0.0, 1.0]], [[1.0, 0.0]], [[0.9998755909430207, 0.0001244090569793481]], [[0.0, 1.0]], [[1.0, 0.0]]]}, {"feature": [10, 5, 4, -2, 10, 4, -2, -2, 9, 6, 1, -2, 8, -2, -2, -2, -2, 8, -2, -2, -2], "threshold": [-0.31406383216381073, -0.8699038028717041, -0.3690771609544754, -2.0, -0.31482264399528503, -0.3658207505941391, -2.0, -2.0, 0.6885604858398438, -0.10069059953093529, 0.6277271509170532, -2.0, -0.6502277255058289, -2.0, -2.0, -2.0, -2.0, 0.6989441812038422, -2.0, -2.0, -2.0], "children_left": [1, 2, 3, -1, 5, 6, -1, -1, 9, 10, 11, -1, 13, -1, -1, -1, -1, 18, -1, -1, -1], "children_right": [20, 17, 4, -1, 8, 7, -1, -1, 16, 15, 12, -1, 14, -1, -1, -1, -1, 19, -1, -1, -1], "values": [[[0.8079908019545846, 0.19200919804541536]], [[0.5565145228215768, 0.44348547717842324]], [[0.8665977249224406, 0.13340227507755947]], [[1.0, 0.0]], [[0.558974358974359, 0.441025641025641]], [[0.1984375, 0.8015625]], [[0.0, 1.0]], [[1.0, 0.0]], [[0.9943396226415094, 0.005660377358490566]], [[0.9833333333333333, 0.016666666666666666]], [[0.9943820224719101, 0.0056179775280898875]], [[1.0, 0.0]], [[0.9791666666666666, 0.020833333333333332]], [[1.0, 0.0]], [[0.0, 1.0]], [[0.0, 1.0]], [[1.0, 0.0]], [[0.0004636068613815484, 0.9995363931386184]], [[0.0, 1.0]], [[1.0, 0.0]], [[1.0, 0.0]]]}, {"feature": [4, 4, -2, -2, -2], "threshold": [-0.3658207505941391, -0.3690771609544754, -2.0, -2.0, -2.0], "children_left": [1, 2, -1, -1, -1], "children_right": [4, 3, -1, -1, -1], "values": [[[0.8069129060074735, 0.19308709399252658]], [[0.49368758243828903, 0.506312417561711]], [[1.0, 0.0]], [[0.0, 1.0]], [[1.0, 0.0]]]}]